{"weights": [[[2.6768109980496524, 14.164360666074785, 4.657066190282942, -4.70872869309964, 27.796021293235494], [4.186119094058464, -10.793503330386356, -0.38891562648510813, 1.1068718733752831, -9.367219900480425], [7.900240632980696, 2.102039677293492, -5.076836408134346, -10.789414720416527, -14.73125522369072], [-19.601958226236405, -2.128402938130698, -10.318370438236888, 0.2527310204969546, 3.9610225788542586], [-15.99849480994792, -2.980835332971785, 7.819429541971556, 12.914124058176975, -1.9716154672103021], [4.053126949268876, -6.698763794809029, 3.87428325257699, 21.13279099716601, 16.309223746733018], [-2.3717054147736323, -0.26827713908379724, -9.759827950205828, 12.070085312776705, -4.549157756482734], [11.855916676253454, -13.914814125433901, -0.8457045866065052, 2.2209619034318813, -11.400985486391615], [-5.574284766233318, 10.903780246350477, 4.167418222314813, 12.4186876091279, 8.414178431176937], [0.13549519982591018, -12.327145729284688, -10.247937508473939, -1.1179384051933465, -3.827868458135102]], [[4.210768067752413, 2.7721241865816086, 15.100065975871217, 2.404786698194626, 6.156447791097197, -8.6170376946705, -0.32000795818082794, 4.447522439014456, -4.7897292589273235, 0.35215469177870906]]], "biases": [[-5.719992371766306, 11.595595756356019, 2.7067756685590267, 5.356847877158608, 2.917002074951174, 1.857863317930113, -5.182562424934622, -0.5457197560660989, 8.555795572365456, -0.4067637058784541], [0.15105449464448162]]}